<?xml version="1.0"?>
<opencv_storage>
<stage7>
  <maxWeakCount>7</maxWeakCount>
  <stageThreshold>-7.3516416549682617e-01</stageThreshold>
  <weakClassifiers>
    <_>
      <internalNodes>
        0 -1 100128 -2.3762110620737076e-02</internalNodes>
      <leafValues>
        1.8143460154533386e-01 -6.6942149400711060e-01</leafValues></_>
    <_>
      <internalNodes>
        0 -1 263084 1.5361558180302382e-03</internalNodes>
      <leafValues>
        1.4267762005329132e-01 -9.0436917543411255e-01</leafValues></_>
    <_>
      <internalNodes>
        0 -1 7766 4.6288454905152321e-03</internalNodes>
      <leafValues>
        2.0963938534259796e-01 -8.5383617877960205e-01</leafValues></_>
    <_>
      <internalNodes>
        0 -1 181144 8.7342842016369104e-04</internalNodes>
      <leafValues>
        -5.7137024402618408e-01 2.7450484037399292e-01</leafValues></_>
    <_>
      <internalNodes>
        0 -1 93095 -1.0302839800715446e-03</internalNodes>
      <leafValues>
        3.8825106620788574e-01 -4.7773668169975281e-01</leafValues></_>
    <_>
      <internalNodes>
        0 -1 3026 -7.6644530054181814e-05</internalNodes>
      <leafValues>
        -6.0031890869140625e-01 3.4134641289710999e-01</leafValues></_>
    <_>
      <internalNodes>
        0 -1 81499 -1.8586136400699615e-02</internalNodes>
      <leafValues>
        4.6759271621704102e-01 -4.6536499261856079e-01</leafValues></_></weakClassifiers></stage7>
</opencv_storage>
